digraph Tree {
node [shape=box, style="filled, rounded", color="black", fontname="helvetica"] ;
edge [fontname="helvetica"] ;
0 [label="K <= 0.826\nsquared_error = 0.096\nsamples = 13742\nvalue = 1.915", fillcolor="#f7d7c1"] ;
1 [label="K <= 0.557\nsquared_error = 0.048\nsamples = 5061\nvalue = 2.263", fillcolor="#f0b88f"] ;
0 -> 1 [labeldistance=2.5, labelangle=45, headlabel="True"] ;
2 [label="Rem <= 2669.649\nsquared_error = 0.078\nsamples = 630\nvalue = 2.556", fillcolor="#eb9e66"] ;
1 -> 2 ;
3 [label="K <= 0.385\nsquared_error = 0.061\nsamples = 439\nvalue = 2.658", fillcolor="#e99457"] ;
2 -> 3 ;
4 [label="K <= 0.337\nsquared_error = 0.073\nsamples = 161\nvalue = 2.816", fillcolor="#e68641"] ;
3 -> 4 ;
5 [label="squared_error = 0.072\nsamples = 85\nvalue = 2.873", fillcolor="#e58139"] ;
4 -> 5 ;
6 [label="squared_error = 0.067\nsamples = 76\nvalue = 2.753", fillcolor="#e78c4a"] ;
4 -> 6 ;
7 [label="Rem <= 997.417\nsquared_error = 0.032\nsamples = 278\nvalue = 2.567", fillcolor="#eb9d64"] ;
3 -> 7 ;
8 [label="squared_error = 0.015\nsamples = 2\nvalue = 2.05", fillcolor="#f4cbae"] ;
7 -> 8 ;
9 [label="squared_error = 0.03\nsamples = 276\nvalue = 2.57", fillcolor="#eb9c64"] ;
7 -> 9 ;
10 [label="K <= 0.361\nsquared_error = 0.038\nsamples = 191\nvalue = 2.32", fillcolor="#efb387"] ;
2 -> 10 ;
11 [label="Rem <= 7556.427\nsquared_error = 0.043\nsamples = 53\nvalue = 2.472", fillcolor="#eca572"] ;
10 -> 11 ;
12 [label="squared_error = 0.033\nsamples = 47\nvalue = 2.512", fillcolor="#eca26c"] ;
11 -> 12 ;
13 [label="squared_error = 0.009\nsamples = 6\nvalue = 2.155", fillcolor="#f2c29f"] ;
11 -> 13 ;
14 [label="Rem <= 7174.655\nsquared_error = 0.024\nsamples = 138\nvalue = 2.262", fillcolor="#f0b890"] ;
10 -> 14 ;
15 [label="squared_error = 0.017\nsamples = 123\nvalue = 2.292", fillcolor="#f0b58b"] ;
14 -> 15 ;
16 [label="squared_error = 0.016\nsamples = 15\nvalue = 2.016", fillcolor="#f5ceb2"] ;
14 -> 16 ;
17 [label="Rem <= 2556.04\nsquared_error = 0.03\nsamples = 4431\nvalue = 2.222", fillcolor="#f1bc95"] ;
1 -> 17 ;
18 [label="K <= 0.704\nsquared_error = 0.023\nsamples = 3126\nvalue = 2.279", fillcolor="#f0b78d"] ;
17 -> 18 ;
19 [label="Rem <= 1389.062\nsquared_error = 0.021\nsamples = 2937\nvalue = 2.292", fillcolor="#f0b58b"] ;
18 -> 19 ;
20 [label="squared_error = 0.027\nsamples = 610\nvalue = 2.344", fillcolor="#efb184"] ;
19 -> 20 ;
21 [label="squared_error = 0.018\nsamples = 2327\nvalue = 2.278", fillcolor="#f0b78d"] ;
19 -> 21 ;
22 [label="K <= 0.729\nsquared_error = 0.015\nsamples = 189\nvalue = 2.087", fillcolor="#f4c8a8"] ;
18 -> 22 ;
23 [label="squared_error = 0.013\nsamples = 38\nvalue = 2.125", fillcolor="#f3c5a3"] ;
22 -> 23 ;
24 [label="squared_error = 0.015\nsamples = 151\nvalue = 2.077", fillcolor="#f4c9aa"] ;
22 -> 24 ;
25 [label="Rem <= 6730.509\nsquared_error = 0.022\nsamples = 1305\nvalue = 2.084", fillcolor="#f4c8a9"] ;
17 -> 25 ;
26 [label="K <= 0.704\nsquared_error = 0.017\nsamples = 1154\nvalue = 2.108", fillcolor="#f3c6a5"] ;
25 -> 26 ;
27 [label="squared_error = 0.016\nsamples = 1079\nvalue = 2.119", fillcolor="#f3c5a4"] ;
26 -> 27 ;
28 [label="squared_error = 0.011\nsamples = 75\nvalue = 1.945", fillcolor="#f6d5bc"] ;
26 -> 28 ;
29 [label="Rem <= 7950.529\nsquared_error = 0.016\nsamples = 151\nvalue = 1.897", fillcolor="#f7d9c3"] ;
25 -> 29 ;
30 [label="squared_error = 0.01\nsamples = 68\nvalue = 1.974", fillcolor="#f6d2b8"] ;
29 -> 30 ;
31 [label="squared_error = 0.012\nsamples = 83\nvalue = 1.835", fillcolor="#f8dfcc"] ;
29 -> 31 ;
32 [label="Rem <= 3753.485\nsquared_error = 0.012\nsamples = 8681\nvalue = 1.712", fillcolor="#fbeade"] ;
0 -> 32 [labeldistance=2.5, labelangle=-45, headlabel="False"] ;
33 [label="Rem <= 2126.293\nsquared_error = 0.007\nsamples = 5765\nvalue = 1.766", fillcolor="#fae5d6"] ;
32 -> 33 ;
34 [label="K <= 1.022\nsquared_error = 0.007\nsamples = 3315\nvalue = 1.799", fillcolor="#f9e2d1"] ;
33 -> 34 ;
35 [label="K <= 0.851\nsquared_error = 0.012\nsamples = 214\nvalue = 1.932", fillcolor="#f7d6be"] ;
34 -> 35 ;
36 [label="squared_error = 0.013\nsamples = 29\nvalue = 2.041", fillcolor="#f4ccaf"] ;
35 -> 36 ;
37 [label="squared_error = 0.009\nsamples = 185\nvalue = 1.915", fillcolor="#f7d7c1"] ;
35 -> 37 ;
38 [label="K <= 1.267\nsquared_error = 0.005\nsamples = 3101\nvalue = 1.79", fillcolor="#f9e3d3"] ;
34 -> 38 ;
39 [label="squared_error = 0.004\nsamples = 2812\nvalue = 1.799", fillcolor="#f9e2d1"] ;
38 -> 39 ;
40 [label="squared_error = 0.005\nsamples = 289\nvalue = 1.697", fillcolor="#fbebe0"] ;
38 -> 40 ;
41 [label="K <= 0.998\nsquared_error = 0.005\nsamples = 2450\nvalue = 1.722", fillcolor="#fae9dc"] ;
33 -> 41 ;
42 [label="K <= 0.875\nsquared_error = 0.008\nsamples = 103\nvalue = 1.889", fillcolor="#f7dac4"] ;
41 -> 42 ;
43 [label="squared_error = 0.005\nsamples = 28\nvalue = 1.945", fillcolor="#f6d5bd"] ;
42 -> 43 ;
44 [label="squared_error = 0.008\nsamples = 75\nvalue = 1.868", fillcolor="#f8dcc7"] ;
42 -> 44 ;
45 [label="Rem <= 2252.067\nsquared_error = 0.003\nsamples = 2347\nvalue = 1.714", fillcolor="#fbe9dd"] ;
41 -> 45 ;
46 [label="squared_error = 0.003\nsamples = 816\nvalue = 1.738", fillcolor="#fae7da"] ;
45 -> 46 ;
47 [label="squared_error = 0.003\nsamples = 1531\nvalue = 1.702", fillcolor="#fbebdf"] ;
45 -> 47 ;
48 [label="Rem <= 6238.749\nsquared_error = 0.005\nsamples = 2916\nvalue = 1.603", fillcolor="#fdf4ed"] ;
32 -> 48 ;
49 [label="K <= 1.022\nsquared_error = 0.003\nsamples = 1453\nvalue = 1.641", fillcolor="#fcf0e8"] ;
48 -> 49 ;
50 [label="K <= 0.851\nsquared_error = 0.006\nsamples = 46\nvalue = 1.753", fillcolor="#fae6d8"] ;
49 -> 50 ;
51 [label="squared_error = 0.007\nsamples = 6\nvalue = 1.846", fillcolor="#f8decb"] ;
50 -> 51 ;
52 [label="squared_error = 0.004\nsamples = 40\nvalue = 1.739", fillcolor="#fae7da"] ;
50 -> 52 ;
53 [label="K <= 1.39\nsquared_error = 0.003\nsamples = 1407\nvalue = 1.638", fillcolor="#fcf0e8"] ;
49 -> 53 ;
54 [label="squared_error = 0.002\nsamples = 1371\nvalue = 1.64", fillcolor="#fcf0e8"] ;
53 -> 54 ;
55 [label="squared_error = 0.002\nsamples = 36\nvalue = 1.557", fillcolor="#fdf8f4"] ;
53 -> 55 ;
56 [label="Rem <= 7039.329\nsquared_error = 0.003\nsamples = 1463\nvalue = 1.566", fillcolor="#fdf7f2"] ;
48 -> 56 ;
57 [label="K <= 0.986\nsquared_error = 0.003\nsamples = 954\nvalue = 1.585", fillcolor="#fdf5f0"] ;
56 -> 57 ;
58 [label="squared_error = 0.007\nsamples = 17\nvalue = 1.712", fillcolor="#fbeade"] ;
57 -> 58 ;
59 [label="squared_error = 0.002\nsamples = 937\nvalue = 1.582", fillcolor="#fdf5f0"] ;
57 -> 59 ;
60 [label="Rem <= 8142.717\nsquared_error = 0.003\nsamples = 509\nvalue = 1.53", fillcolor="#fefaf7"] ;
56 -> 60 ;
61 [label="squared_error = 0.002\nsamples = 409\nvalue = 1.543", fillcolor="#fef9f6"] ;
60 -> 61 ;
62 [label="squared_error = 0.002\nsamples = 100\nvalue = 1.476", fillcolor="#ffffff"] ;
60 -> 62 ;
}